svm_type c_svc
kernel_type c_svc
L 6
k 3
d 2
nr_class 2
total_sv 6
rho 0.00360133
label 1 -1
nr_sv 3 3
SV
1 ATCGATCGATCGATCG
1 GCTAGCTAGCTAGCTA
0.9873052006587386 TGCATGCATGCATGCA
-0.9873052006587386 CGTACGTACGTACGTA
-1 AGTCAGTCAGTCAGTC
-1 TCGATCGATCGATCGA
