svm_type c_svc
kernel_type wgkm
L 6
k 3
d 2
M 50
H 50
nr_class 2
total_sv 6
rho 0.00256857
label 1 -1
nr_sv 3 3
SV
1 ATCGATCGATCGATCG
1 GCTAGCTAGCTAGCTA
0.9869153527542949 TGCATGCATGCATGCA
-0.9869153527542949 CGTACGTACGTACGTA
-1 AGTCAGTCAGTCAGTC
-1 TCGATCGATCGATCGA
