svm_type c_svc
kernel_type (null)
L 6
k 3
d 2
nr_class 2
total_sv 6
rho 0.126462
label 1 -1
nr_sv 3 3
SV
1 ATCGATCGATCGATCG
1 GCTAGCTAGCTAGCTA
1 TGCATGCATGCATGCA
-1 CGTACGTACGTACGTA
-1 AGTCAGTCAGTCAGTC
-1 TCGATCGATCGATCGA
